,1,2,3,4,5,6,7,8,9,10,11
1,0.05381138215710549,-0.07501646862492743,0.08642426619885464,-0.0481990268478141,-0.10748998074752458,0.031192344775312582,-0.0391311127842143,0.0489825662284431,-0.05517424085029467,-0.007945020791383766,-0.10532027977339951
2,0.006191475304496284,-0.13311259433771017,-0.03311059964606213,-0.369955812224057,-0.15497063125064414,0.15532809727947627,0.4617363522772863,-0.3669450187833326,0.11485410058743184,-0.28576119639187153,-0.2893817959863465
3,-0.14926266720149478,-0.1358452064059879,-0.03414273953374173,0.11534749973326457,-0.03037737001375851,-0.19964333009300872,0.11399371967174905,-0.0437784728629064,0.13533018254826898,-0.17946396965821818,-0.06288416920597502
4,0.09277445136579983,-0.11748816611390671,0.09960702157030303,-0.02900027555737237,0.35442534825139976,0.09357577084274397,0.36163700934911325,-0.34316679911769643,-0.02919769841580459,-0.1932679300537742,-0.26673768936847597
5,0.06498428964602347,0.24682008377174994,0.2561471082234085,0.09022817235071535,-0.08643339908392306,-0.07768222074971576,0.25491607804422906,0.07019964160629188,-0.31437735559492536,-0.15850008826676798,-0.12858158991159774
1,0.08785128924544434,-0.0649344864103454,0.38231904643741305,-0.050235701664517365,0.02026348419073266,0.2603291390776172,-0.2064588386759201,-0.11003873825102113,0.034958428097963894,-0.06663256884001403,-0.23773303732799547
1,0.16441303636944396,-0.10459702042002521,0.4586102302548267,-0.06585603893473602,0.3236404728955712,0.3929730396619476,-0.11788834819115121,-0.5414594836642861,0.1723347381880116,-0.31664154103700537,-0.4994311856252161
