,1,2,3,4,5,6,7,8,9,10,11
1,-0.43015330822989867,-0.1266532056729395,-0.11302410166099192,0.09631832554159585,-0.2394987651902016,-0.3021623236345937,-0.2535623052349399,0.2975799128045408,0.336832904630738,0.09327652471815072,0.07801951277100228
2,0.1029601294198161,-0.46480924534836315,-0.12678069372378942,-0.03057392204284767,0.002566947008452431,0.3918929397076681,0.03659757051323952,1.141717470138717,0.1745309014473965,0.508447282849532,-0.03127999415479413
3,0.38346570648755923,-0.877917205943233,-0.46165568858604183,-0.10493045801363325,0.31755956844138605,-0.1835609298482798,0.40320523464943026,-0.8131526081116,0.02092280789344002,-0.22266225076578852,0.16342760260825553
4,-0.6239224198739245,0.28245858581040084,0.1544446188703445,0.7015914850130244,-0.27383013456079636,0.11704001808022406,0.3049955478276197,-0.15292790120528624,-0.8602422493976555,0.02566043289322693,-0.3562967244754668
5,-0.507577859438473,-0.42072287007224807,0.006174417267416941,-0.048000494928795726,0.5637379162561823,0.006455921690590494,-0.26549701470324605,-0.48104071482179106,0.23973867798646611,-0.1853191946032389,-0.2634798260873849
1,-0.500385499272976,0.10099586972046726,-0.3013549880192672,-0.05552019496936813,-0.1001152015983537,-0.10907557306420451,0.06684253825997814,-0.6012887974043539,0.2348452417460014,-0.4362394167882489,1.5770035234420532
1,-0.4742251914052467,0.16773786076035996,-0.4189830172788665,0.3161922215258397,0.1437588583454383,0.2144555540982596,0.6332787182560884,0.49716257355893434,-0.18912017191757452,-0.4605891859642778,-0.5551080132617082
