,1,2,3,4,5,6,7,8,9,10,11
1,0.09626084159191761,-0.08894226341437714,0.22567580201463858,-0.06038322185393849,-0.014729332905174726,0.16527365710485814,-0.10407946919341533,-0.12351975511618268,0.0010377817529582545,-0.09152696800780205,-0.26488060783073464
2,-0.00365837313427588,-0.12230695032039658,-0.043172464261971015,-0.3622678397317598,-0.1440058149620192,0.1625193132442644,0.42512929012021305,-0.3997100100709001,0.12667280892859628,-0.2790189789177895,-0.3055167871985131
3,-0.14195522652727754,-0.13027594482150043,0.018104421861763573,0.11702697995304111,0.0033680000949657877,-0.14902370815014168,0.06132717357984654,-0.1067728419704854,0.15563950621210973,-0.19828327879832647,-0.11947519804507023
4,0.03939952854925051,-0.08158944936561187,-0.029393973633687228,-0.003782035646748653,0.291093440650014,-0.008330646866697147,0.34710618622092,-0.23449807816529347,-0.06415830619219691,-0.1050245358145029,-0.14827348342870422
5,0.05097363996794996,0.24071687543373016,0.2095429365421279,0.08780111436626056,-0.09147430024347748,-0.10982172458334367,0.26904673702165155,0.04889850048768935,-0.3160905412956436,-0.15509780655298933,-0.1220722729897133
1,0.08710845530524777,-0.06645000815195634,0.3634691170620966,-0.05057615078174044,0.021113213823876528,0.2680083230083577,-0.19795540204030387,-0.12228610813337105,0.03645521774963661,-0.06729016293175626,-0.24727027504483964
1,0.11823523065688345,-0.1019757727352153,0.44836363383034883,-0.06958021759249351,0.1821316998988556,0.36759307831716814,-0.13139411334356332,-0.4384814337670803,0.16924588464566673,-0.2595453601543746,-0.4621812762349505
