,1,2,3,4,5,6,7,8,9,10,11
1,-0.1267455072307347,0.051295485088546144,-0.11142994899514606,-0.0589267996293955,0.21442270620423157,0.15821225596573113,-0.06749204457757053,-0.012706910425111382,0.10725790802609367,0.04483832613708178,0.007169396388618289
2,-0.16904881688770737,0.032201861110285286,0.3471680304401513,0.18199380733561252,-0.16946403464105855,0.31357028727768976,0.4060834075729191,0.05812307904450061,0.014421372429888129,0.16766905789712197,-0.10764496430749154
3,0.260151930200813,0.371742149583698,-0.3540786501675412,-0.24633999808782533,-0.24902639882666505,0.02801002024134624,-0.19298413351378269,-0.014254477305430549,0.3200394629858798,0.04304945939492017,-0.05813743801849395
4,-0.31410955459114165,0.2963476610049954,-0.18739537766460676,0.4939225514098926,-0.1031233758240493,-0.06952308534407703,0.28489529836126154,-0.35990171504650653,-0.03199275359202379,-0.36007054934794236,-0.051456008681366065
5,-0.1806178800089101,0.1242274438658058,-0.055962904421449265,-0.09137709732246774,-0.2541089275239834,0.03173799999214609,-0.058429531724990956,-0.28881426856865205,-0.2342305766961516,-0.04495530918461199,0.048957452030062555
1,-0.09799874901798285,-0.27495283866024534,0.10118326911680006,0.11620802946816253,-0.041422419623000584,0.26266793046493586,0.1650583499396756,-0.1094575205291095,-0.39866877271150103,0.14237671071786961,0.03634910854082389
1,-0.2852326124260623,-0.1490133641895492,-0.10001186800814095,0.9344462289945522,-0.22593828963206025,0.19141573813170437,0.48835049134748315,-0.2711017784012913,0.16700891600181555,-0.08084224108868912,-0.7308261998351626
