,1,2,3,4,5,6,7,8,9,10,11
1,0.09107257142035356,-0.09106203788711487,0.20159986267081917,-0.06389489354649693,-0.04782262906986888,0.1206823807244563,-0.05547528081249947,-0.04397323506241293,-0.03752808609761189,-0.06715647746014186,-0.21081911711937795
2,-0.0036000152758721257,-0.15308710292943412,-0.05363137833131922,-0.3777162563587734,-0.16410755083217707,0.1355211768730328,0.4735137744284529,-0.3688083864742495,0.10321395902216772,-0.284734711007715,-0.2926735706814963
3,-0.1330223981829118,-0.1719258087788407,0.03684170899465333,0.09451567625147689,-0.0060510407141328906,-0.15214945001360092,0.10235937781248572,-0.10245638835640825,0.14103049964754785,-0.2237336232887923,-0.13700075859685015
4,0.052165932868696724,-0.14798656258580464,-0.001501686891054622,-0.03611879810996584,0.2942946350710392,0.003294149424479427,0.3854636066158794,-0.2741807735722224,-0.06443198388588506,-0.15684247588502367,-0.20070507119175998
5,0.046612742243745404,0.24261822486633539,0.24949202166833254,0.09036326070816765,-0.09278679906249408,-0.10876797597284281,0.23203112974921272,0.04300749631226271,-0.32422280672054243,-0.15687469622514677,-0.13739955876670956
1,0.08770987987688088,-0.0647334792775849,0.3692154810448041,-0.049983962855790896,0.021079600303479693,0.2692784379969782,-0.20719377835177977,-0.11307076106203275,0.03632537967840364,-0.06537180168430232,-0.2308726956698035
1,0.11389972848981413,-0.18788606033378044,0.45253085014133837,-0.08379015024822584,0.2215412117243594,0.3537537391451829,-0.1997524412465328,-0.5179823393627555,0.1804058634973624,-0.320400372543384,-0.522227906117809
