,1,2,3,4,5,6,7,8,9,10,11
1,0.04629613977457885,-0.0643417035415106,0.07153717995499999,-0.0347996106917289,-0.11267840001994794,0.001672843604245128,0.02359582959323683,0.1079491243107696,-0.037201925007548105,0.0047332495309294976,-0.07931085435565505
2,0.023196132893304588,-0.09684844173422562,-0.010596784393964538,-0.354751515944263,-0.14611454490120307,0.1792500822128278,0.49523046009423916,-0.3763085258375592,0.14038027153867405,-0.2837881202603149,-0.30121803326249436
3,-0.1370470773582193,-0.11675216896484689,-0.009984386071012194,0.14617151770195932,-0.02707002398787628,-0.18853676297980482,0.1485423938648374,-0.03405499395931854,0.14807226048817182,-0.17158369346552318,-0.042389559388933455
4,0.12508350231307372,-0.07945189418967606,0.12941470857326795,0.005491987047311802,0.39185213219509846,0.12592655566738795,0.35731421240199523,-0.37576407836293046,-0.014204389299691115,-0.21528404871549506,-0.3173298770616188
5,0.0605080820629467,0.24408044290473185,0.1940912526114623,0.0871874909733171,-0.09547404016291529,-0.10393643899565057,0.2645083170470654,0.04842169888094909,-0.30679006931193353,-0.15428284393063849,-0.13349963863932923
1,0.08439367536567008,-0.06608464036572931,0.35291807888704146,-0.04501758864503766,0.02450915324830089,0.2620218875534867,-0.21614798117931144,-0.1078773283336466,0.034221244126794614,-0.052467722506211914,-0.2322449582897734
1,0.17388513627464716,-0.07018409487585235,0.4477661903223751,-0.04940272182142122,0.34308712251133927,0.41577446995982215,-0.22869806399001172,-0.6178727700141688,0.1318335430820419,-0.34200573363539777,-0.5626221958450834
