,1,2,3,4,5,6,7,8,9,10,11
1,0.06271127403987967,-0.07585255220837998,0.0938120569486001,-0.04840042354209781,-0.09066513943588017,0.05037273829937516,-0.03165357602837069,0.03174151513579342,-0.05105427869759306,-0.012983787452890761,-0.11652273334091871
2,0.003548527415044288,-0.14142132680275873,-0.04311965896349999,-0.37358016187926757,-0.15016747014941134,0.15699475455098294,0.4682742376447214,-0.37940576509568397,0.12103321670732704,-0.2875330212060632,-0.29345321316478046
3,-0.14564273158793747,-0.14382007826723078,-0.02238070880459833,0.11144548003152871,-0.018967269778757085,-0.18060734767382386,0.11478117547373172,-0.06226893535988007,0.14419515737839445,-0.18510273092539156,-0.0760132473520708
4,0.07798346398632111,-0.12843156992435523,0.06800887964397356,-0.03317011589570012,0.34284979039311486,0.07554240591619887,0.3668757290280122,-0.3350505225350916,-0.025328620954213,-0.1829722721226121,-0.24972186920079523
5,0.05772498478210156,0.23736505916741604,0.25834872693499256,0.08317754978356469,-0.09269148981859543,-0.10377835839921173,0.25235286305316545,0.0657572355637731,-0.3293714466388052,-0.1628729052903993,-0.12801377715290255
1,0.08709742046126247,-0.06602543672429416,0.3612945760809882,-0.0504733232425664,0.020603561779596182,0.26257160609776936,-0.20954872089976517,-0.11474822568615439,0.03599746188686702,-0.06604539954449454,-0.2358391044463566
1,0.14365623718231244,-0.11931553279601419,0.44622997984323426,-0.07675622198313252,0.2950362480897648,0.3746172570465926,-0.14682457181999323,-0.543421383501073,0.18235621730251295,-0.3239465257079841,-0.5051927752968967
