,1,2,3,4,5,6,7,8,9,10,11
1,0.4048232050122907,0.2902226231198148,-0.24383387470773324,-0.22098795756364098,-0.05904115754923004,0.011695591611599701,-0.2907398758097613,-0.5141636389973536,0.4353081497122183,0.7619386120641952,0.3157595844709398
2,0.5696624155034661,-0.12201795600617364,-0.8256585983410462,0.0448866478134953,0.48614284670501057,-0.588289918200215,0.2593370455960769,0.5083013712220652,0.2279793468239257,0.5759165410740535,-0.326623589619885
3,0.027717563453153522,-0.48536386356608924,-0.5129983254462582,-0.3082154823095814,-0.08430033991439466,-0.8178430171893268,-0.3478495271017229,-0.26842088107111584,-0.14506227244049316,0.5776548663557077,0.826464676929894
4,-0.7786458646578831,-0.172179840763597,0.13244414016215106,0.19379652578697815,-0.6083176384898886,-0.19895032742674926,0.1336531576521149,0.6959156485355646,-0.6099870585782402,-0.00826078498072349,0.15585461443300253
5,-0.0924214224440235,-0.08930311314503377,0.09279365631418583,0.14658904230870096,0.04019306858894303,-0.25234066501281355,0.4210135950378626,0.08929078897290162,0.39741837694352056,-0.16708488043043157,0.15580216875235267
1,0.01230321776048714,-0.3116589286259617,-0.44792444718509017,-0.20622322500372378,-0.09655399385809335,0.15398004333799492,0.8638248808487207,-0.13600629419683635,-0.5385024402940435,0.21901988589514065,0.09533750257896399
1,0.3915127627213285,-0.016012354067031238,-0.30236932621230317,0.17856656282715072,-1.046833302440524,-0.07388276065114013,-0.4544195206112638,1.140805073983241,0.4658670386862993,-0.036161174300052584,-0.31135628640165824
