,1,2,3,4,5,6,7,8,9,10,11
1,0.07882330387786013,-0.055664469881541515,0.1367395953004133,-0.033708172878103605,-0.07817138525354282,0.08218400185582643,-0.12187417589662623,0.011717100872049543,-0.04339569154627167,-0.024542531209540638,-0.14372946287176824
2,-0.008205407711249071,-0.1371889574928025,-0.03609773322399139,-0.3633044696046635,-0.1611806321397162,0.14944758749538667,0.40201532609442325,-0.38071365605074475,0.10775643360980952,-0.2765411603925815,-0.29268290437190164
3,-0.1443259875613979,-0.14251517514978548,0.008020722961552741,0.1186918908896943,-0.016418411644185917,-0.16103299295381085,0.038059965111240025,-0.08913424496781613,0.14245061048265806,-0.1922077299852605,-0.10783481713295244
4,0.04955452711868476,-0.14050311839469432,0.05925943814925198,-0.029168533132960913,0.3189821129707988,0.051300016909035275,0.31914245352131737,-0.3332978447741745,-0.05080316617592197,-0.16224797632319893,-0.24382075705019007
5,0.03756725319807377,0.2337543242941348,0.325846383168396,0.08098540727938477,-0.10928786628897628,-0.09295281733802656,0.246020944394366,0.09548134500412918,-0.3424189930057723,-0.13993076490216727,-0.08598572868148781
1,0.08699024022184029,-0.06714761510102737,0.3747734282535655,-0.050821890685605726,0.020706418439838618,0.2655245803961498,-0.1915378381689137,-0.12356947533718533,0.03629262284503988,-0.06771653431219858,-0.25050200302330994
1,0.08260802736562765,-0.14511812093667142,0.418647390579579,-0.07844310121179432,0.2456650429303167,0.3064830015261373,-0.022348048856362962,-0.4956831941474557,0.1409034083628456,-0.2617628951579238,-0.4330969212446577
